<?xml version="1.0"?>
<opencv_storage>
<cascade>
  <stageType>BOOST</stageType>
  <featureType>HAAR</featureType>
  <height>20</height>
  <width>20</width>
  <stageParams>
    <boostType>GAB</boostType>
    <minHitRate>9.9299997091293335e-01</minHitRate>
    <maxFalseAlarm>5.0000000000000000e-01</maxFalseAlarm>
    <weightTrimRate>9.4999999999999996e-01</weightTrimRate>
    <maxDepth>1</maxDepth>
    <maxWeakCount>100</maxWeakCount></stageParams>
  <featureParams>
    <maxCatCount>0</maxCatCount>
    <featSize>1</featSize>
    <mode>ALL</mode></featureParams>
  <stageNum>11</stageNum>
  <stages>
    <!-- stage 0 -->
    <_>
      <maxWeakCount>2</maxWeakCount>
      <stageThreshold>-5.3185503929853439e-03</stageThreshold>
      <weakClassifiers>
        <_>
          <internalNodes>
            0 -1 21 4.8482716083526611e-02</internalNodes>
          <leafValues>
            -9.1129881143569946e-01 9.0561354160308838e-01</leafValues></_>
        <_>
          <internalNodes>
            0 -1 0 1.6461610794067383e-02</internalNodes>
          <leafValues>
            -8.0597019195556641e-01 9.0598028898239136e-01</leafValues></_></weakClassifiers></_>
    <!-- stage 1 -->
    <_>
      <maxWeakCount>3</maxWeakCount>
      <stageThreshold>-6.0476350784301758e-01</stageThreshold>
      <weakClassifiers>
        <_>
          <internalNodes>
            0 -1 33 1.4998029917478561e-02</internalNodes>
          <leafValues>
            -7.7648204565048218e-01 9.1092699766159058e-01</leafValues></_>
        <_>
          <internalNodes>
            0 -1 11 2.4214003235101700e-02</internalNodes>
          <leafValues>
            -6.5783816576004028e-01 9.1407454013824463e-01</leafValues></_>
        <_>
          <internalNodes>
            0 -1 19 5.8600112795829773e-02</internalNodes>
          <leafValues>
            -6.6679310798645020e-01 8.2955676317214966e-01</leafValues></_></weakClassifiers></_>
    <!-- stage 2 -->
    <_>
      <maxWeakCount>3</maxWeakCount>
      <stageThreshold>-6.9861245155334473e-01</stageThreshold>
      <weakClassifiers>
        <_>
          <internalNodes>
            0 -1 10 -4.0325440466403961e-02</internalNodes>
          <leafValues>
            8.0295097827911377e-01 -8.4633296728134155e-01</leafValues></_>
        <_>
          <internalNodes>
            0 -1 30 -1.5489343553781509e-02</internalNodes>
          <leafValues>
            8.6389297246932983e-01 -6.6024452447891235e-01</leafValues></_>
        <_>
          <internalNodes>
            0 -1 3 2.6098705828189850e-02</internalNodes>
          <leafValues>
            -6.2116199731826782e-01 8.0796504020690918e-01</leafValues></_></weakClassifiers></_>
    <!-- stage 3 -->
    <_>
      <maxWeakCount>4</maxWeakCount>
      <stageThreshold>-1.1982069015502930e+00</stageThreshold>
      <weakClassifiers>
        <_>
          <internalNodes>
            0 -1 20 2.8574658557772636e-02</internalNodes>
          <leafValues>
            -7.3702424764633179e-01 7.6397514343261719e-01</leafValues></_>
        <_>
          <internalNodes>
            0 -1 1 3.5935919731855392e-02</internalNodes>
          <leafValues>
            -6.5830171108245850e-01 7.6338326930999756e-01</leafValues></_>
        <_>
          <internalNodes>
            0 -1 27 -2.3147188127040863e-02</internalNodes>
          <leafValues>
            7.4026387929916382e-01 -6.6379225254058838e-01</leafValues></_>
        <_>
          <internalNodes>
            0 -1 7 1.8891714513301849e-02</internalNodes>
          <leafValues>
            -5.6077367067337036e-01 8.5279232263565063e-01</leafValues></_></weakClassifiers></_>
    <!-- stage 4 -->
    <_>
      <maxWeakCount>3</maxWeakCount>
      <stageThreshold>-4.3874016404151917e-01</stageThreshold>
      <weakClassifiers>
        <_>
          <internalNodes>
            0 -1 17 1.2976936995983124e-02</internalNodes>
          <leafValues>
            -6.4948451519012451e-01 8.7321710586547852e-01</leafValues></_>
        <_>
          <internalNodes>
            0 -1 33 2.1274227648973465e-02</internalNodes>
          <leafValues>
            -6.9498783349990845e-01 7.8725397586822510e-01</leafValues></_>
        <_>
          <internalNodes>
            0 -1 9 2.4499736726284027e-02</internalNodes>
          <leafValues>
            -5.6480753421783447e-01 9.0573215484619141e-01</leafValues></_></weakClassifiers></_>
    <!-- stage 5 -->
    <_>
      <maxWeakCount>3</maxWeakCount>
      <stageThreshold>-7.6292127370834351e-01</stageThreshold>
      <weakClassifiers>
        <_>
          <internalNodes>
            0 -1 16 1.4779960736632347e-02</internalNodes>
          <leafValues>
            -7.4334138631820679e-01 7.3758202791213989e-01</leafValues></_>
        <_>
          <internalNodes>
            0 -1 6 -1.5025829896330833e-02</internalNodes>
          <leafValues>
            -9.1668128967285156e-01 5.7996976375579834e-01</leafValues></_>
        <_>
          <internalNodes>
            0 -1 2 4.2612351477146149e-02</internalNodes>
          <leafValues>
            -5.9456217288970947e-01 8.9710146188735962e-01</leafValues></_></weakClassifiers></_>
    <!-- stage 6 -->
    <_>
      <maxWeakCount>3</maxWeakCount>
      <stageThreshold>-2.9569455981254578e-01</stageThreshold>
      <weakClassifiers>
        <_>
          <internalNodes>
            0 -1 4 3.2948415726423264e-02</internalNodes>
          <leafValues>
            -5.2296817302703857e-01 8.4901529550552368e-01</leafValues></_>
        <_>
          <internalNodes>
            0 -1 19 6.5738976001739502e-02</internalNodes>
          <leafValues>
            -7.0099020004272461e-01 7.0016878843307495e-01</leafValues></_>
        <_>
          <internalNodes>
            0 -1 5 -2.9563708230853081e-02</internalNodes>
          <leafValues>
            9.5450234413146973e-01 -4.4371968507766724e-01</leafValues></_></weakClassifiers></_>
    <!-- stage 7 -->
    <_>
      <maxWeakCount>4</maxWeakCount>
      <stageThreshold>-1.0888203382492065e+00</stageThreshold>
      <weakClassifiers>
        <_>
          <internalNodes>
            0 -1 28 -1.3213304802775383e-02</internalNodes>
          <leafValues>
            7.6753926277160645e-01 -4.8190477490425110e-01</leafValues></_>
        <_>
          <internalNodes>
            0 -1 12 -2.4408251047134399e-02</internalNodes>
          <leafValues>
            8.9834624528884888e-01 -3.9685466885566711e-01</leafValues></_>
        <_>
          <internalNodes>
            0 -1 18 1.9269062206149101e-02</internalNodes>
          <leafValues>
            -7.2492712736129761e-01 6.0185682773590088e-01</leafValues></_>
        <_>
          <internalNodes>
            0 -1 15 1.0484005324542522e-02</internalNodes>
          <leafValues>
            -7.8033471107482910e-01 4.4661912322044373e-01</leafValues></_></weakClassifiers></_>
    <!-- stage 8 -->
    <_>
      <maxWeakCount>3</maxWeakCount>
      <stageThreshold>-4.4057089090347290e-01</stageThreshold>
      <weakClassifiers>
        <_>
          <internalNodes>
            0 -1 31 1.7827507108449936e-02</internalNodes>
          <leafValues>
            -7.1158391237258911e-01 7.3888361454010010e-01</leafValues></_>
        <_>
          <internalNodes>
            0 -1 25 -3.2344162464141846e-02</internalNodes>
          <leafValues>
            9.0547847747802734e-01 -3.9125713706016541e-01</leafValues></_>
        <_>
          <internalNodes>
            0 -1 24 1.5429494902491570e-02</internalNodes>
          <leafValues>
            -5.8382236957550049e-01 6.6227018833160400e-01</leafValues></_></weakClassifiers></_>
    <!-- stage 9 -->
    <_>
      <maxWeakCount>4</maxWeakCount>
      <stageThreshold>-1.1960766315460205e+00</stageThreshold>
      <weakClassifiers>
        <_>
          <internalNodes>
            0 -1 8 -3.0382599681615829e-02</internalNodes>
          <leafValues>
            7.1521943807601929e-01 -6.9926649332046509e-01</leafValues></_>
        <_>
          <internalNodes>
            0 -1 22 -2.6152666658163071e-02</internalNodes>
          <leafValues>
            5.2999252080917358e-01 -7.5084853172302246e-01</leafValues></_>
        <_>
          <internalNodes>
            0 -1 29 -1.8643591552972794e-02</internalNodes>
          <leafValues>
            6.0060894489288330e-01 -6.0660755634307861e-01</leafValues></_>
        <_>
          <internalNodes>
            0 -1 13 1.1748136952519417e-02</internalNodes>
          <leafValues>
            -5.5383992195129395e-01 6.0907626152038574e-01</leafValues></_></weakClassifiers></_>
    <!-- stage 10 -->
    <_>
      <maxWeakCount>4</maxWeakCount>
      <stageThreshold>-4.0743780136108398e-01</stageThreshold>
      <weakClassifiers>
        <_>
          <internalNodes>
            0 -1 23 -4.9058251082897186e-02</internalNodes>
          <leafValues>
            6.4043009281158447e-01 -8.3307087421417236e-01</leafValues></_>
        <_>
          <internalNodes>
            0 -1 14 1.4899804256856441e-02</internalNodes>
          <leafValues>
            -6.7242223024368286e-01 5.5893951654434204e-01</leafValues></_>
        <_>
          <internalNodes>
            0 -1 26 -8.7589491158723831e-03</internalNodes>
          <leafValues>
            6.4204055070877075e-01 -5.2687001228332520e-01</leafValues></_>
        <_>
          <internalNodes>
            0 -1 32 -1.0977220721542835e-02</internalNodes>
          <leafValues>
            4.5601472258567810e-01 -7.3378413915634155e-01</leafValues></_></weakClassifiers></_></stages>
  <features>
    <_>
      <rects>
        <_>
          0 0 4 9 -1.</_>
        <_>
          1 0 2 9 2.</_></rects>
      <tilted>0</tilted></_>
    <_>
      <rects>
        <_>
          0 0 4 10 -1.</_>
        <_>
          1 0 2 10 2.</_></rects>
      <tilted>0</tilted></_>
    <_>
      <rects>
        <_>
          0 0 20 2 -1.</_>
        <_>
          0 1 20 1 2.</_></rects>
      <tilted>0</tilted></_>
    <_>
      <rects>
        <_>
          0 3 4 7 -1.</_>
        <_>
          1 3 2 7 2.</_></rects>
      <tilted>0</tilted></_>
    <_>
      <rects>
        <_>
          0 8 19 4 -1.</_>
        <_>
          0 9 19 2 2.</_></rects>
      <tilted>0</tilted></_>
    <_>
      <rects>
        <_>
          0 18 20 2 -1.</_>
        <_>
          0 19 20 1 2.</_></rects>
      <tilted>0</tilted></_>
    <_>
      <rects>
        <_>
          0 19 3 1 -1.</_>
        <_>
          1 19 1 1 2.</_></rects>
      <tilted>0</tilted></_>
    <_>
      <rects>
        <_>
          1 0 12 2 -1.</_>
        <_>
          1 1 12 1 2.</_></rects>
      <tilted>0</tilted></_>
    <_>
      <rects>
        <_>
          1 9 17 4 -1.</_>
        <_>
          1 11 17 2 2.</_></rects>
      <tilted>0</tilted></_>
    <_>
      <rects>
        <_>
          2 0 18 2 -1.</_>
        <_>
          2 1 18 1 2.</_></rects>
      <tilted>0</tilted></_>
    <_>
      <rects>
        <_>
          2 2 8 8 -1.</_>
        <_>
          4 2 4 8 2.</_></rects>
      <tilted>0</tilted></_>
    <_>
      <rects>
        <_>
          2 8 14 4 -1.</_>
        <_>
          2 9 14 2 2.</_></rects>
      <tilted>0</tilted></_>
    <_>
      <rects>
        <_>
          2 18 14 2 -1.</_>
        <_>
          2 19 14 1 2.</_></rects>
      <tilted>0</tilted></_>
    <_>
      <rects>
        <_>
          3 0 3 2 -1.</_>
        <_>
          4 1 1 2 3.</_></rects>
      <tilted>1</tilted></_>
    <_>
      <rects>
        <_>
          3 6 3 3 -1.</_>
        <_>
          2 7 3 1 3.</_></rects>
      <tilted>1</tilted></_>
    <_>
      <rects>
        <_>
          4 3 2 4 -1.</_>
        <_>
          3 4 2 2 2.</_></rects>
      <tilted>1</tilted></_>
    <_>
      <rects>
        <_>
          4 7 10 4 -1.</_>
        <_>
          4 9 10 2 2.</_></rects>
      <tilted>0</tilted></_>
    <_>
      <rects>
        <_>
          4 8 7 4 -1.</_>
        <_>
          4 9 7 2 2.</_></rects>
      <tilted>0</tilted></_>
    <_>
      <rects>
        <_>
          5 7 11 4 -1.</_>
        <_>
          5 9 11 2 2.</_></rects>
      <tilted>0</tilted></_>
    <_>
      <rects>
        <_>
          7 0 6 6 -1.</_>
        <_>
          9 2 2 2 9.</_></rects>
      <tilted>0</tilted></_>
    <_>
      <rects>
        <_>
          7 6 6 3 -1.</_>
        <_>
          9 7 2 1 9.</_></rects>
      <tilted>0</tilted></_>
    <_>
      <rects>
        <_>
          7 6 6 6 -1.</_>
        <_>
          9 8 2 2 9.</_></rects>
      <tilted>0</tilted></_>
    <_>
      <rects>
        <_>
          9 2 4 8 -1.</_>
        <_>
          11 2 2 8 2.</_></rects>
      <tilted>0</tilted></_>
    <_>
      <rects>
        <_>
          9 3 2 6 -1.</_>
        <_>
          9 5 2 2 2.</_></rects>
      <tilted>0</tilted></_>
    <_>
      <rects>
        <_>
          10 0 3 3 -1.</_>
        <_>
          9 1 3 1 3.</_></rects>
      <tilted>1</tilted></_>
    <_>
      <rects>
        <_>
          11 2 4 8 -1.</_>
        <_>
          12 2 2 8 2.</_></rects>
      <tilted>0</tilted></_>
    <_>
      <rects>
        <_>
          11 5 4 2 -1.</_>
        <_>
          12 5 2 2 2.</_></rects>
      <tilted>0</tilted></_>
    <_>
      <rects>
        <_>
          14 2 4 8 -1.</_>
        <_>
          15 2 2 8 2.</_></rects>
      <tilted>0</tilted></_>
    <_>
      <rects>
        <_>
          14 3 4 4 -1.</_>
        <_>
          15 3 2 4 2.</_></rects>
      <tilted>0</tilted></_>
    <_>
      <rects>
        <_>
          14 4 4 4 -1.</_>
        <_>
          15 4 2 4 2.</_></rects>
      <tilted>0</tilted></_>
    <_>
      <rects>
        <_>
          14 4 4 5 -1.</_>
        <_>
          15 4 2 5 2.</_></rects>
      <tilted>0</tilted></_>
    <_>
      <rects>
        <_>
          16 0 4 11 -1.</_>
        <_>
          17 0 2 11 2.</_></rects>
      <tilted>0</tilted></_>
    <_>
      <rects>
        <_>
          16 1 4 2 -1.</_>
        <_>
          16 1 2 2 2.</_></rects>
      <tilted>1</tilted></_>
    <_>
      <rects>
        <_>
          16 2 4 8 -1.</_>
        <_>
          17 2 2 8 2.</_></rects>
      <tilted>0</tilted></_></features></cascade>
</opencv_storage>
